5.111644417047500610e-02 9.071859531104564667e-03 -2.188609912991523743e-02 5.216092510113267678e-39 -1.286984739500591469e-39 3.563544424822762124e-12 4.508739466097529218e-39 1.023966908454895020e+00 4.034474204742187854e-39 -9.544059634208679199e-01 -7.210718989372253418e-01 2.832417961268930574e-39 1.721153259277343750e+00 -4.682371556215088651e-39
8.572144508361816406e-01 -6.132820248603820801e-01 -1.580448150634765625e+00 -6.590072660876072440e-39 -5.404156573114908403e-39 -3.586293314583599567e-04 2.515566161605053212e-39 -9.081771224737167358e-02 -4.820929145770597914e-39 2.433447390794754028e-01 -5.755213499069213867e-01 -4.151228991491267288e-39 -9.153811335563659668e-01 -2.382826763273420590e-39
1.733423322439193726e-01 1.762914299964904785e+00 2.346682101488113403e-01 -5.716469567052837682e-39 -2.556503694941838417e-39 1.467341803618182894e-07 -4.365633261726821599e-40 -2.008534431457519531e+00 -4.255425341403067711e-39 -5.054829120635986328e-01 2.413258701562881470e-01 -1.330300276331335889e-39 -1.568991988897323608e-01 -5.638146791986330682e-39
