1.240904092788696289e+00 1.246393561363220215e+00 1.020323157310485840e+00 -4.853031492289815148e-39 -5.349099636077880859e-01 1.379100561141967773e+00 3.430296778678894043e-01 -3.108274638652801514e-01 9.212798476219177246e-01 3.920292556285858154e-01 2.485124319791793823e-01 2.133326381444931030e-01 -1.152921020984649658e-01 -5.006564758533563730e-39 -9.812424340618812561e-40 4.094914719462394714e-02 4.622408747673034668e-01 -1.545073986053466797e+00 1.215016603469848633e+00 1.789929866790771484e+00 -7.116204500198364258e-01 5.832703070773188284e-39 3.635507524013519287e-01 7.585405707359313965e-01 1.505436468869447708e-02 -4.478210777753748753e-39 -3.034338063485815090e-39 4.253080969072252292e-41
-5.998786166310310364e-02 -2.535566091537475586e-01 2.436741292476654053e-01 4.203746855337232782e-39 -4.600760638713836670e-01 5.457173585891723633e-01 -1.139979213476181030e-01 5.163435339927673340e-01 -3.609683811664581299e-01 -1.201665103435516357e-01 2.379901707172393799e-02 7.595871090888977051e-01 4.451788365840911865e-01 -1.822406869734460823e-39 5.645943616641833964e-40 3.101263940334320068e-01 -7.601110637187957764e-02 -7.135137319564819336e-01 9.280854463577270508e-01 1.461676210165023804e-01 6.319368630647659302e-02 -6.260094898496864516e-39 -1.962151527404785156e-01 -7.256008684635162354e-02 -3.932203352451324463e-02 5.349204653836410701e-40 1.146559219092137225e-39 5.094549486511590345e-39
-2.912189364433288574e-01 -2.909452319145202637e-01 -2.953129410743713379e-01 -5.284381988175208988e-39 -5.556986853480339050e-02 -3.600939214229583740e-01 -5.738741531968116760e-02 4.068872928619384766e-01 -5.281208753585815430e-01 -2.586568146944046021e-02 1.105910092592239380e-01 3.777213096618652344e-01 1.234212890267372131e-01 3.780571534692709925e-39 -3.199880457568827354e-39 7.303986698389053345e-02 -2.455074638128280640e-01 2.792470157146453857e-01 8.597550541162490845e-02 -7.341734766960144043e-01 1.680088043212890625e-01 -4.085314714326356543e-39 -7.574275881052017212e-02 -1.684217303991317749e-01 1.952052582055330276e-03 3.441395649193673901e-39 3.016363608083920661e-39 -1.190094759781780642e-39
-4.420578174512997676e-39 -1.625922404260692273e-39 5.533679991470915569e-39 5.094154320344650746e-39 2.126064043058255708e-40 -5.692187867263017252e-39 3.028353117744683796e-39 -4.920871153544708192e-39 1.315548807397388540e-39 -4.825585660567549281e-39 6.529159617930336967e-39 -5.880316389994016918e-39 2.807400579785339615e-39 -2.087916494963941213e-39 -1.545975524274032809e-39 5.914716865994726853e-39 2.515304118792224471e-39 6.661077855361875246e-39 4.708453924531566471e-39 -5.131721730874734767e-39 -5.852930814105717018e-39 -2.938599951104679263e-39 3.495127037509744687e-39 1.096188144493517351e-39 -3.534717923022313744e-39 -2.661330629162585008e-39 2.554993095197296265e-39 -5.698310140253652378e-39
3.270276087222648865e-39 -7.729996731739631657e-40 -5.907315207506163169e-39 -4.718134094323122308e-39 -5.232794586509555173e-39 -6.792724240891334510e-40 -7.997294413809590513e-40 2.581678021853433756e-39 -5.373381256241406770e-39 4.167409784858825951e-39 1.978016860302338785e-39 4.968477466273215202e-39 -4.845247279320490789e-39 4.897776353554170882e-39 4.700798631020959996e-39 3.181282424350308382e-39 5.216894052834861473e-41 -4.506828094992190167e-39 5.668891280293617168e-39 5.422066568787443890e-39 5.673979395017580579e-39 -1.245765545172476975e-39 5.998668656992426643e-39 4.421238186089694665e-39 5.169063532352062492e-39 -6.574317862241668522e-39 1.410562448472468437e-39 -6.295874252186470071e-39
-7.410346539042497634e-40 -2.068799403787124902e-05 -3.849388308108103729e-10 -3.737299438114359573e-39 1.351893729406583589e-06 -1.123100293320966614e-10 -1.100222507375292480e-04 5.162896286492468789e-06 1.230020452895955185e-13 -4.414893337525427341e-04 2.918817044701427221e-04 3.876752998621668667e-07 1.447923568775877357e-04 6.593025196740404830e-39 -1.501836023946265396e-39 2.659377059899270535e-04 -6.395171658368781209e-05 -1.784724174003216035e-10 4.110942949985332828e-14 8.320288902297079403e-13 3.460499551157814133e-39 1.063696237001217817e-39 1.028378537739627063e-04 -7.939090806985404924e-08 1.010277774184942245e-04 -5.490357448147849525e-40 5.983428134894429933e-39 -6.508891236942342813e-40
5.757921376926030096e-39 3.032650900134768010e-39 -4.520548208256394451e-39 4.268404167779644167e-39 -4.466439870653420290e-39 5.352427640304357780e-39 4.254925077851303751e-39 -6.397012968849113743e-39 -5.912792883203208879e-39 -3.802228602458849972e-39 1.918308934035922654e-39 -1.020383502767402047e-39 -2.649862402530550705e-39 -3.883701496473159162e-39 6.572086995086463413e-39 5.061774516729497198e-39 5.861829059354179607e-39 -5.172530344752802090e-39 2.504739729669679675e-39 5.036939304046268465e-40 -6.997692167268125503e-40 -1.259704260997115930e-39 -6.282270446694804746e-39 -4.955984890463759458e-39 4.529718305406936054e-39 -5.594091369566422758e-39 9.432560352909641150e-40 -6.356701815925881730e-39
-7.567284256219863892e-02 2.066294848918914795e-01 -1.937604248523712158e-01 5.846348915218783353e-39 4.777140915393829346e-01 -3.665342032909393311e-01 2.209958136081695557e-01 -5.754016041755676270e-01 3.660826981067657471e-01 8.738848567008972168e-02 -1.350502818822860718e-01 -7.364996671676635742e-01 -4.536766707897186279e-01 4.174271943438624580e-40 2.628823307387177902e-39 -4.353489875793457031e-01 -2.000847905874252319e-01 7.669218182563781738e-01 -1.238557100296020508e+00 -5.902259349822998047e-01 -2.193628251552581787e-01 -3.767026583736546243e-40 3.518239855766296387e-01 2.316885143518447876e-01 7.019607722759246826e-02 -1.406553333566035135e-40 1.929910284022067815e-40 4.495296809929261247e-39
-1.127100788616522815e-39 -5.692249524395447544e-39 1.241616300419611191e-39 -5.557855192577447313e-39 5.394902398056507311e-39 2.607265731812004916e-39 -3.508683198853622968e-39 3.740165093473903824e-39 -3.179512584389866138e-39 5.220912976830545049e-39 5.615413526999589175e-39 1.773176452085801350e-39 -5.795966630232448880e-39 -4.263349684218824551e-39 -5.891040527141494744e-39 -2.096555499996503710e-39 -5.258123056252226241e-39 -1.157004497845214412e-39 3.368351565442278487e-39 -3.675027135658229028e-39 -7.665845288042841531e-40 -6.696746506472799140e-39 7.643144252920779494e-40 3.016007678273982158e-39 -1.265812521003107808e-39 -6.590855986717630013e-39 -4.824196973789403387e-39 5.521946919429123876e-39
-1.367672681808471680e-01 2.766119837760925293e-01 8.324207365512847900e-02 -2.299425682572200452e-39 5.109463334083557129e-01 -7.332408428192138672e-01 9.542527794837951660e-02 -2.131229192018508911e-01 6.838052868843078613e-01 -2.423854321241378784e-01 -2.492605745792388916e-01 -3.051482439041137695e-01 -3.425740301609039307e-01 5.968354367313687876e-40 -6.039592177344568601e-39 -3.897682763636112213e-03 -6.763254851102828979e-02 -2.109079062938690186e-01 -3.061867058277130127e-01 -2.033929377794265747e-01 5.986952185630798340e-01 -4.875449465122083571e-39 -4.285656511783599854e-01 3.259573280811309814e-01 3.802547454833984375e-01 -1.312915767582922209e-39 3.165705590620873716e-39 4.768170258588768551e-39
-5.115571618080139160e-01 1.945330649614334106e-01 1.071134209632873535e-01 -1.276375508827188279e-39 5.504354462027549744e-02 -6.436609625816345215e-01 7.008375227451324463e-02 1.120980232954025269e-01 -1.554541662335395813e-02 -3.466281294822692871e-01 7.236967235803604126e-02 2.825072109699249268e-01 -7.440164685249328613e-02 4.785714515362115261e-41 4.882174296452378369e-39 1.667755283415317535e-02 -3.102444410324096680e-01 -3.103839755058288574e-01 -4.954011142253875732e-01 -7.697729468345642090e-01 7.806147336959838867e-01 -3.045013155187041546e-39 -4.986801445484161377e-01 1.421158015727996826e-01 3.502843081951141357e-01 6.557304697586300918e-39 6.494424231596653401e-39 -2.685329266662611825e-39
1.720999103766666786e-39 5.702626139523772815e-40 -4.655113498487042310e-40 -5.648283785077256409e-39 -2.845734500575409311e-39 1.755527097927630279e-39 -6.132603362914128334e-39 3.662178630038834780e-39 -2.633904415618819688e-39 3.728730498005013317e-39 2.811050962284905763e-39 5.260777115543657445e-39 4.480119346262159154e-39 1.820090523372931901e-39 -4.670819251675194859e-39 -1.069569078865203126e-40 -4.456883015126725037e-39 -2.787577811709000752e-39 9.832350804781511460e-40 -3.061114074542133694e-39 -4.374223221313132728e-39 -2.222613507250235604e-40 -6.082272925970973880e-39 -2.351102767339571056e-39 5.840072499397072497e-39 2.442519275256729147e-39 -2.846659357561863690e-39 -1.179950760198533291e-39
6.936656236648559570e-01 5.373224988579750061e-02 -3.010646998882293701e-01 -1.676845590454256125e-39 -2.087960764765739441e-02 5.247804895043373108e-02 -4.898497760295867920e-01 4.338154494762420654e-01 -7.489435672760009766e-01 4.021919965744018555e-01 4.420090317726135254e-01 1.902558803558349609e-01 -5.142796635627746582e-01 -1.013463890950566100e-39 1.855851660182501232e-39 -3.963341116905212402e-01 3.759915530681610107e-01 9.790419936180114746e-01 4.250998198986053467e-01 -2.269734591245651245e-01 -1.150932073593139648e+00 -4.163868703639477138e-39 3.006853163242340088e-01 -6.265459060668945312e-01 -4.776596128940582275e-01 -8.495091680276338529e-41 1.805254976531125062e-39 1.846034163141441564e-39
-3.616214639110516455e-39 9.784874812810186657e-40 4.867959524830267424e-39 -3.326402294614250763e-41 -4.688210766915930164e-39 -3.169458267908335576e-39 -1.031371084026172937e-39 -3.931387683214132687e-39 -2.505151711418191171e-39 1.764833121029211389e-39 -1.334291174357732968e-39 -1.163855446037298442e-39 4.452963583322008524e-39 -4.219709046144356773e-39 -2.461726873307229415e-39 -6.205336358406443640e-39 5.640898942170264623e-40 -1.682931429684818806e-39 1.485516502030738577e-40 -4.898865162460951265e-39 -7.071764804092335334e-40 -4.584912649319761949e-39 5.910014108348452767e-39 -3.259652843564602427e-39 3.134652816651435769e-39 4.494889032076142726e-39 3.104800955465924191e-40 5.356183120188748290e-41
