-2.657385170459747314e-01 8.819810152053833008e-01 -1.254125237464904785e+00 1.865073442459106445e-01 -2.518293380737304688e+00 -4.485682010650634766e+00 -1.313113331794738770e+00 9.873449057340621948e-02 -2.241457253694534302e-01 8.741211146116256714e-02 -4.038752913475036621e-01 -1.991679668426513672e-01 -3.857422769069671631e-01 -2.349269092082977295e-01
-1.494687557220458984e+00 3.447179794311523438e-01 -2.485255956649780273e+00 3.470340371131896973e-01 -9.615591168403625488e-01 -5.574925899505615234e+00 1.778051972389221191e+00 -5.856586694717407227e-01 -3.561666607856750488e-01 -8.187895417213439941e-01 -3.772710561752319336e-01 1.997220814228057861e-01 -1.315237879753112793e+00 8.180302381515502930e-01
-4.955112934112548828e-01 3.292125463485717773e-01 -3.459185659885406494e-01 -3.769609928131103516e-01 1.017049789428710938e+00 -4.610346794128417969e+00 -2.098477602005004883e+00 1.495688874274492264e-02 -2.439753562211990356e-01 -2.046917527914047241e-01 9.956824034452438354e-02 -2.113547772169113159e-01 -1.372423768043518066e-01 -8.013454079627990723e-02
6.651215516769957183e-39 -5.124572306109749550e-39 2.439229026462494477e-39 2.023893970725868971e-39 2.251683443892653934e-39 -4.298117300417187588e-39 -2.186297456248793645e-39 2.642137044096727989e-39 5.928017991018098016e-39 -3.527799712503942122e-39 5.268858403787418665e-39 -5.932224689008001117e-39 -1.845594155423643571e-39 4.003633026840862956e-39
-2.141509205102920532e-01 2.976506054401397705e-01 -5.073271393775939941e-01 -2.642014622688293457e-01 2.907715439796447754e-01 -2.806165218353271484e-01 2.874168872833251953e+00 2.624820768833160400e-01 5.889524519443511963e-02 1.411712616682052612e-01 -2.574329674243927002e-01 1.461680233478546143e-01 -4.391693174839019775e-01 -4.073862731456756592e-01
3.444745838642120361e-01 -6.698169708251953125e-01 6.877601146697998047e-01 9.213581085205078125e-01 -1.077392458915710449e+00 -3.407436132431030273e+00 -2.825113534927368164e+00 -9.972979128360748291e-02 1.789487004280090332e-01 1.776369512081146240e-01 9.335523098707199097e-02 6.701895594596862793e-02 -9.142119437456130981e-02 5.004736408591270447e-02
1.340249329805374146e-01 -7.784354090690612793e-01 4.126339554786682129e-01 1.027814149856567383e+00 2.002238988876342773e+00 -4.206312179565429688e+00 8.686099052429199219e-01 7.568009942770004272e-02 3.164541125297546387e-01 -2.424128949642181396e-01 3.487747609615325928e-01 1.057536825537681580e-01 -3.438743352890014648e-01 -2.818969078361988068e-02
-4.952246844768524170e-01 3.683934509754180908e-01 -1.021321296691894531e+00 -8.311017751693725586e-01 -1.247416853904724121e+00 2.967758893966674805e+00 -3.909314393997192383e+00 5.393823236227035522e-02 -2.571732103824615479e-01 -2.204276323318481445e-01 -1.409309059381484985e-01 -1.117839291691780090e-01 -7.383375763893127441e-01 -1.406355500221252441e-01
-5.610300898551940918e-01 3.175416290760040283e-01 -1.288098543882369995e-01 2.773663699626922607e-01 1.628226876258850098e+00 -4.505670070648193359e+00 1.693956017494201660e+00 9.297858178615570068e-02 -1.385407447814941406e-01 -6.242714449763298035e-02 -7.179613411426544189e-02 -2.714213132858276367e-01 -2.118611186742782593e-01 -1.032154262065887451e-01
5.347025990486145020e-01 -1.047890819609165192e-02 -9.890995025634765625e-01 7.402020692825317383e-01 -2.370095491409301758e+00 -3.174819231033325195e+00 3.854292631149291992e-02 2.215157747268676758e-01 5.494746379554271698e-03 -3.628798876889050007e-04 1.369491368532180786e-01 2.536253258585929871e-02 -3.630766272544860840e-01 -2.711798250675201416e-01
-3.564978539943695068e-01 4.863685965538024902e-01 -1.730702877044677734e+00 -3.299866318702697754e-01 -2.100798368453979492e+00 -6.862837672233581543e-01 -1.489341855049133301e+00 -2.173661887645721436e-01 -6.566247344017028809e-02 -3.634569048881530762e-01 -8.721175044775009155e-02 -9.782542288303375244e-02 -4.466897845268249512e-01 -1.854861378669738770e-01
-2.955810129642486572e-01 1.097151488065719604e-01 -9.031169414520263672e-01 -5.219766497611999512e-01 -4.622244238853454590e-01 1.295345306396484375e+00 -3.849701881408691406e+00 -1.473971903324127197e-01 -2.122375071048736572e-01 -4.601991176605224609e-01 1.333572566509246826e-01 6.749524176120758057e-02 -2.534589469432830811e-01 4.983564466238021851e-02
7.062037587165832520e-01 -1.316686272621154785e+00 1.200013041496276855e+00 7.527909874916076660e-01 2.117148637771606445e+00 1.045361161231994629e+00 -3.409758090972900391e+00 1.340653747320175171e-01 5.827512741088867188e-01 6.905405968427658081e-02 5.224711298942565918e-01 5.338203534483909607e-02 3.700326681137084961e-01 -3.238687757402658463e-03
5.815210662043021593e-39 4.650399530453053625e-39 2.099656573498054530e-39 5.544374701350642573e-39 3.028270441135288632e-39 4.777629023222961066e-39 -5.327293951048227861e-39 6.623827138284728634e-39 5.319114571911963904e-39 -2.060131549013308740e-39 1.756639728908304184e-39 -5.723551729491535308e-39 -4.549039408633046632e-39 2.192676166858400212e-39
-2.706505689055488461e-39 5.710050218787765695e-39 -5.534677715977514839e-39 2.822678936941873095e-39 1.206711356971744323e-39 -3.465374668515200171e-39 3.583480306983888728e-39 -5.767443199991117228e-39 5.835458023554050874e-39 -5.165947044567404099e-39 4.228175691465807318e-39 -3.380924015264200746e-39 2.917964429919032006e-39 -5.573048070527656980e-39
-2.636594176292419434e-01 -3.497397005558013916e-01 1.531550437211990356e-01 -1.759657263755798340e-01 2.190113306045532227e+00 8.165006339550018311e-02 -2.969936609268188477e+00 2.004804909229278564e-01 4.697659015655517578e-01 7.054550945758819580e-02 -2.686206065118312836e-02 -3.596631065011024475e-02 -1.242574751377105713e-01 -2.464709430932998657e-02
-5.370500683784484863e-01 1.117598295211791992e+00 -8.090980052947998047e-01 -3.231516778469085693e-01 -2.213050365447998047e+00 -3.459822654724121094e+00 -1.079265952110290527e+00 -2.454161047935485840e-01 -1.602852791547775269e-01 -2.062717452645301819e-02 -2.726074457168579102e-01 9.837063960731029510e-03 2.926549315452575684e-01 -4.247620701789855957e-01
1.208037585020065308e-01 -1.760870069265365601e-01 1.058232560753822327e-01 4.375165402889251709e-01 -2.031308650970458984e+00 3.339099645614624023e+00 2.647545337677001953e+00 -1.092590540647506714e-01 2.350325733423233032e-01 -1.834962666034698486e-01 1.835653185844421387e-01 1.346803922206163406e-02 7.409910112619400024e-02 4.363094642758369446e-02
4.777941480278968811e-02 -1.715941876173019409e-01 -6.690568476915359497e-02 9.066155552864074707e-01 -1.501275062561035156e+00 -1.777981162071228027e+00 -3.630906820297241211e+00 6.972054392099380493e-02 7.070606946945190430e-02 2.243295758962631226e-01 -3.001751899719238281e-01 1.031624451279640198e-01 -3.935317695140838623e-01 7.864493876695632935e-02
-1.993789672851562500e-01 5.493568181991577148e-01 8.687156438827514648e-01 4.998803734779357910e-01 -2.974610030651092529e-01 -3.688174247741699219e+00 -2.360671281814575195e+00 5.922698602080345154e-02 2.437001615762710571e-01 -1.735879480838775635e-02 1.096787974238395691e-01 7.086130231618881226e-02 6.789819598197937012e-01 3.954845294356346130e-02
-3.935559988021850586e-01 2.795451879501342773e-02 2.871245443820953369e-01 -4.232633411884307861e-01 2.037913560867309570e+00 1.386030077934265137e+00 -1.786861717700958252e-01 -4.557273164391517639e-02 9.679237008094787598e-02 -1.384485661983489990e-01 -7.795970141887664795e-02 -9.317119419574737549e-02 2.079376429319381714e-01 -2.547917366027832031e-01
-4.492659566219401942e-39 1.436916668691025271e-39 -2.852668125376888505e-39 8.363117390906227257e-40 -6.484128891779258970e-39 7.772231867454381643e-40 3.444757364209589138e-39 -5.404194408173445173e-39 6.526463519684976019e-39 5.178178978862495427e-39 4.845591998742714694e-39 1.090867414224476020e-39 -1.205130692303985929e-39 -4.619712495382804456e-39
9.408124089241027832e-01 -1.134444117546081543e+00 -1.450829356908798218e-01 1.541583538055419922e+00 -2.043532848358154297e+00 -3.061053991317749023e+00 6.471882462501525879e-01 3.701544404029846191e-01 4.866574406623840332e-01 1.345771104097366333e-01 3.803039491176605225e-01 1.847113668918609619e-01 -3.137480914592742920e-01 -2.760193645954132080e-01
-5.102512240409851074e-02 -5.770767927169799805e-01 -5.035087466239929199e-01 4.624190628528594971e-01 1.575726151466369629e+00 -4.923643589019775391e+00 1.337718069553375244e-01 7.319184392690658569e-02 -5.917798262089490891e-03 -4.048132151365280151e-02 -8.570076897740364075e-03 9.262098371982574463e-02 -5.790279507637023926e-01 -4.191797077655792236e-01
-5.560145378112792969e-01 2.885434925556182861e-01 -2.560127377510070801e-01 -4.360501468181610107e-01 1.908144116401672363e+00 -1.554546833038330078e+00 3.861497640609741211e-01 2.282126843929290771e-01 -2.606322765350341797e-01 -2.706387639045715332e-01 -9.508842229843139648e-02 -1.051499545574188232e-01 -3.823451399803161621e-01 -1.593856513500213623e-01
-2.306292045047392056e-39 1.248027240893897229e-39 7.537962790188558725e-40 2.394397284693350604e-39 -5.795298210864965942e-39 7.403564254475165520e-40 -1.596015892435072027e-39 -6.653599125457773697e-39 -2.806746173402499925e-39 3.373864273600932317e-40 -5.646036102340479402e-39 1.977799659040368438e-39 4.966559088675554528e-39 -1.431005991768503193e-41
-1.987804930075647632e-39 4.173732443529859525e-39 5.730450321831406382e-39 -1.716363608446680292e-39 -5.789338488496192495e-39 5.940524579812197009e-40 -2.440913387216612907e-39 -6.287355758821839508e-39 8.827129351398103934e-40 -6.008403477424091148e-40 3.975471131603327107e-39 4.876686811666082385e-39 4.979135742392869761e-40 -4.351899135477974067e-39
4.385741894689882724e-39 -2.240858413255744723e-40 -1.276773477591056527e-39 1.928614082942567359e-39 -2.071511493842090580e-40 4.339099675304831188e-39 1.590734398523031791e-39 -2.788354131058236701e-39 3.183169973381753911e-39 3.251895255266100239e-39 4.562887040057504474e-39 6.371663479629477802e-39 -6.123272116440189377e-39 5.992165230819495167e-39
