-7.676122337579727173e-02 9.287068992853164673e-02 9.915290772914886475e-02 6.155349314212799072e-02 2.068967968225479126e-01 9.497462213039398193e-02 -9.206835180521011353e-02 1.604313850402832031e-01 -3.919092714786529541e-01 2.085018008947372437e-01 2.216321229934692383e-01 3.967303037643432617e-02 -1.376425921916961670e-01 -4.695173352956771851e-02 -4.836581649617106120e-41 -2.090450227260589600e-01 2.346150763332843781e-02 -9.710843861103057861e-02 6.207709014415740967e-02 -4.936267063021659851e-02 5.653774831444025040e-03 -8.744102417386858523e-42 2.844348847866058350e-01 4.075400158762931824e-02 -6.769233196973800659e-02 1.117354407906532288e-01 6.062188744544982910e-02 2.751290053129196167e-02
-2.226667478680610657e-02 3.939113393425941467e-02 9.233260154724121094e-02 2.283195964992046356e-02 3.851883113384246826e-02 -2.544353343546390533e-02 -1.923668757081031799e-02 -2.613858506083488464e-02 -1.931030070409178734e-03 8.454393595457077026e-02 2.407345920801162720e-02 8.952221274375915527e-02 -4.584844410419464111e-02 7.796398550271987915e-02 -8.169570047013683523e-41 6.228930503129959106e-02 -3.213154152035713196e-02 3.308077529072761536e-02 -5.481732636690139771e-02 1.493464596569538116e-02 5.237765237689018250e-02 3.121952848669259952e-41 -1.000275164842605591e-01 -1.923751085996627808e-02 -5.398118495941162109e-02 -3.567760437726974487e-02 -8.770365267992019653e-03 2.534764632582664490e-02
1.650272309780120850e-01 -1.040579527616500854e-01 -4.179562255740165710e-02 -1.133006066083908081e-01 -1.818362027406692505e-01 1.600541174411773682e-01 1.107706353068351746e-01 -4.154649749398231506e-02 9.214533865451812744e-02 -8.093772083520889282e-02 -1.047786921262741089e-01 -7.083686441183090210e-02 9.106077253818511963e-02 1.233030930161476135e-01 6.686015362832999690e-41 1.901728957891464233e-01 2.566694281995296478e-02 -1.870833686552941799e-03 3.035865910351276398e-02 1.299815177917480469e-01 -4.751861095428466797e-02 -5.120204458796449095e-41 -6.700249016284942627e-02 -2.546674944460391998e-02 -1.671458594501018524e-02 -1.022882834076881409e-01 -5.555195361375808716e-02 1.197071447968482971e-01
8.439750224351882935e-02 -1.206211447715759277e-01 -1.766458600759506226e-01 3.916504234075546265e-02 -1.120126917958259583e-01 6.008591875433921814e-02 8.945939689874649048e-02 9.338573366403579712e-02 2.212632680311799049e-03 -3.437962755560874939e-02 -1.850330531597137451e-01 -1.486513167619705200e-01 1.361886560916900635e-01 -2.425646409392356873e-02 3.194399979274852995e-41 5.228890478610992432e-02 4.296949133276939392e-02 7.859905809164047241e-02 2.010534703731536865e-01 -3.097944892942905426e-02 -6.779442727565765381e-02 5.409852851372388784e-41 2.865185402333736420e-02 3.300741314888000488e-02 9.850651770830154419e-02 8.082577586174011230e-02 -2.891372889280319214e-03 4.937087371945381165e-02
1.232534945011138916e-01 1.428699344396591187e-01 1.608543246984481812e-01 1.533923447132110596e-01 -8.053869754076004028e-02 2.364406920969486237e-02 8.438806235790252686e-02 -1.509958058595657349e-01 1.520586162805557251e-01 -7.476952858269214630e-03 6.832366436719894409e-02 2.231757938861846924e-01 2.088270485401153564e-01 -2.112617641687393188e-01 4.143219169469186634e-41 -1.789600029587745667e-02 -2.317019850015640259e-01 -6.655376404523849487e-02 1.242454275488853455e-01 1.239714100956916809e-01 1.452702283859252930e-01 2.587497614375774721e-41 -1.159147247672080994e-01 1.658685505390167236e-01 2.778142094612121582e-01 -2.667568922042846680e-01 8.112560957670211792e-02 -2.345176488161087036e-01
7.078519062690380952e-41 -4.520448716065427389e-41 -8.431192470303126871e-41 -6.471476567944870197e-41 7.232101374380380903e-42 4.121218783579287006e-42 -5.390795192257571272e-42 4.526754559154889066e-41 -4.014720100290600908e-42 4.291616676841184761e-41 -3.962311537724852750e-41 -7.702937658393519439e-41 5.105630954767470998e-41 -1.346787954062581687e-41 1.142058248424725913e-42 -1.043448875490188536e-40 2.762800052262809337e-41 -2.625472802758977264e-41 -3.000180012119433349e-42 3.835353896857024323e-42 -3.157545829663110306e-41 4.264571616479715792e-41 3.043480134667070196e-41 -2.188547941582499301e-41 -6.968657263087315294e-41 -3.940591411527818085e-41 -2.824877574232398733e-41 -3.455602013024998897e-42
1.470223665237426758e-01 -1.568883657455444336e-02 1.129721477627754211e-01 -6.290304064750671387e-01 -8.650055527687072754e-02 1.754281073808670044e-01 2.290650606155395508e-01 -1.523141413927078247e-01 1.719403564929962158e-01 -1.175930052995681763e-01 -2.325527369976043701e-01 8.409360796213150024e-02 7.296511530876159668e-02 -1.954572275280952454e-02 -9.623557333597113716e-41 2.575394324958324432e-02 -5.896838754415512085e-02 -2.001598626375198364e-01 -1.336281653493642807e-02 2.482437044382095337e-01 6.531245261430740356e-02 -5.307698193323109620e-41 5.403371900320053101e-02 4.347790405154228210e-02 -7.138393074274063110e-02 -1.721423268318176270e-01 -2.120165713131427765e-02 8.671259507536888123e-03
6.237325444817543030e-02 4.533209279179573059e-02 7.015200704336166382e-02 -5.920363590121269226e-02 -7.460870593786239624e-02 8.144837617874145508e-02 5.654268711805343628e-02 -4.367986321449279785e-02 3.590327501296997070e-02 1.199883315712213516e-02 1.466072350740432739e-01 7.470995187759399414e-04 3.944157063961029053e-02 -1.303333938121795654e-01 7.477048345944358927e-41 -9.050843119621276855e-02 -9.470138698816299438e-02 -1.188395693898200989e-01 7.299382239580154419e-02 1.183109357953071594e-01 3.413317725062370300e-02 4.482753787375089810e-42 1.471413224935531616e-01 9.529788047075271606e-02 8.952262997627258301e-02 -1.437425911426544189e-01 4.139483720064163208e-02 -1.022652983665466309e-01
4.282259941101074219e-02 -6.255806982517242432e-02 -1.150621622800827026e-01 -3.305688500404357910e-02 -7.945950143039226532e-03 2.135880142450332642e-01 3.769928216934204102e-02 1.278314739465713501e-01 4.432773962616920471e-02 6.690640002489089966e-02 5.405236408114433289e-02 9.360107779502868652e-02 -1.329602897167205811e-01 1.304533183574676514e-01 -4.087307360742626432e-41 1.863600462675094604e-01 1.232920289039611816e-01 1.059375777840614319e-01 -8.314226269721984863e-01 1.991014368832111359e-02 1.153649911284446716e-01 5.805299278004852161e-41 -7.157959043979644775e-02 -3.158151730895042419e-02 5.751599743962287903e-02 -4.377895593643188477e-02 -3.592626424506306648e-03 -7.556021958589553833e-02
1.341288089752197266e-01 1.590514741837978363e-02 3.191185742616653442e-02 -5.829866230487823486e-02 -1.734268367290496826e-01 9.249213337898254395e-02 1.094277575612068176e-01 -1.129291430115699768e-01 1.015297174453735352e-01 -7.318791747093200684e-02 5.162931978702545166e-02 2.214871719479560852e-02 1.277609169483184814e-01 -1.082758232951164246e-01 2.451431533489834984e-41 2.276488021016120911e-02 -1.183514073491096497e-01 -9.642838686704635620e-02 7.497393339872360229e-02 1.492483168840408325e-01 4.333693906664848328e-02 -4.732184914024907249e-41 -1.579930260777473450e-02 9.422191977500915527e-02 1.213219016790390015e-01 -2.117897719144821167e-01 2.499392069876194000e-02 -8.308583498001098633e-02
-1.203174050897359848e-02 -3.531363233923912048e-02 -5.695444345474243164e-02 3.477983549237251282e-02 -1.169108040630817413e-02 1.738426461815834045e-02 3.238531574606895447e-02 1.749286614358425140e-02 3.809805726632475853e-03 -1.929848082363605499e-02 -5.397421121597290039e-02 -3.072709031403064728e-02 5.414952710270881653e-02 1.128381863236427307e-02 8.635501786401685200e-41 4.963607713580131531e-02 -5.835196003317832947e-03 -4.910349380224943161e-03 3.120880760252475739e-02 -8.343206718564033508e-03 -2.488180063664913177e-02 9.630423696072305320e-41 -1.648416370153427124e-02 -1.438274513930082321e-02 7.644162327051162720e-02 3.652215376496315002e-02 7.122629743109344544e-18 -1.151406299322843552e-02
-1.293660048395395279e-02 -2.125798463821411133e-01 5.920850485563278198e-02 1.277200728654861450e-01 4.082891717553138733e-02 -9.169518202543258667e-02 -8.023144304752349854e-02 1.474613994359970093e-01 8.275178819894790649e-02 1.762153357267379761e-01 -2.350260913372039795e-01 -9.601856023073196411e-02 -1.184608670882880688e-03 2.452288419008255005e-01 -8.230666660058245548e-41 1.814709603786468506e-01 4.003566503524780273e-02 1.442476063966751099e-01 1.138055026531219482e-01 -5.784766003489494324e-02 -1.489655375480651855e-01 4.832237624377699187e-41 -1.101291552186012268e-01 -1.480786949396133423e-01 -1.042879968881607056e-01 1.645475178956985474e-01 -9.852523356676101685e-02 1.434526145458221436e-01
-3.710217943992818159e-41 -3.651223278644743360e-41 -5.988448987292105753e-41 -4.730783615560582431e-42 6.595211222344751544e-41 -2.366232586858886106e-41 -3.282681782527316470e-41 -1.454687935815592601e-41 3.630904450912033512e-41 -3.101073501550820178e-41 9.530370985719513381e-41 4.520448716065427389e-41 -6.220223753291430496e-41 -1.408865476032171083e-41 2.312142466135948167e-42 3.848245842728812640e-41 7.222432414976539665e-41 8.095861747790198146e-41 -7.840545167590216475e-41 -3.921113362873703128e-41 -2.623651114755355002e-41 1.014329893401518837e-40 -3.270630615734123044e-41 -4.317400568584761396e-42 -1.929587985375273107e-42 2.976357938225911459e-41 2.102087826333658088e-41 3.066041039942699751e-41
-2.341174893081188202e-02 -2.075220048427581787e-01 -4.109474271535873413e-02 -4.221186414361000061e-02 -7.023147493600845337e-02 5.667953565716743469e-02 -4.305867105722427368e-02 1.751161068677902222e-01 -3.305755183100700378e-02 -2.490177378058433533e-02 -7.904665172100067139e-02 -2.885456085205078125e-01 -8.610829710960388184e-02 9.826221317052841187e-02 -1.913332923189105229e-41 1.829061806201934814e-01 1.595684289932250977e-01 1.018728036433458328e-02 -1.726607978343963623e-02 7.420773804187774658e-02 -1.691178679466247559e-01 2.745143691612316642e-42 2.504767477512359619e-01 -1.464658975601196289e-01 -1.672543883323669434e-01 1.870086193084716797e-01 -9.464062750339508057e-02 2.662994563579559326e-01
