-1.421892046928405762e-01 -7.536423951387405396e-02 -1.023482456803321838e-01 1.525923795998096466e-02 1.306092143058776855e-01 -1.043863594532012939e-01 4.712427780032157898e-02 2.050710655748844147e-02 -4.151276499032974243e-02 7.731863856315612793e-02 1.091688722372055054e-01 -1.007621884346008301e-01 8.617617189884185791e-02 -1.891879551112651825e-02
1.197178103029727936e-02 -2.451996132731437683e-02 -4.553763195872306824e-02 -1.814656555652618408e-01 4.073134064674377441e-02 -9.548380970954895020e-02 -5.828310921788215637e-02 -1.300301551818847656e-01 -1.867938190698623657e-01 -1.727410107851028442e-01 -6.846908479928970337e-02 5.327042937278747559e-02 -1.793445944786071777e-01 -1.398819405585527420e-02
-2.877840027213096619e-02 -1.815947443246841431e-01 -1.024782210588455200e-01 -1.308140605688095093e-01 -1.687612943351268768e-02 8.922422677278518677e-02 9.439914487302303314e-03 8.504521846771240234e-02 -5.228175222873687744e-02 4.656028002500534058e-02 7.255676388740539551e-02 -8.313233405351638794e-02 -6.753480434417724609e-02 -1.362493187189102173e-01
1.329509168863296509e-01 -3.300716727972030640e-02 -1.021108124405145645e-02 -7.584428787231445312e-02 -1.093089282512664795e-01 6.357338279485702515e-03 8.245679736137390137e-02 6.877063307911157608e-03 -8.122026920318603516e-02 1.743536069989204407e-02 -6.406663060188293457e-01 -7.335197180509567261e-02 3.489888459444046021e-02 4.671667888760566711e-02
-6.303078681230545044e-02 5.892174690961837769e-02 -7.297610864043235779e-03 -2.823486365377902985e-02 -1.409681588411331177e-01 -5.434457212686538696e-02 2.641638815402984619e-01 7.076425850391387939e-02 -7.649661600589752197e-02 -8.068545907735824585e-02 -4.143368452787399292e-02 8.006628602743148804e-02 -5.331762135028839111e-02 -8.585707098245620728e-02
1.315120160579681396e-01 3.806798532605171204e-02 8.655276149511337280e-02 1.022078394889831543e-01 -6.874782592058181763e-02 4.238474741578102112e-02 5.204365402460098267e-02 4.671800509095191956e-02 -1.037381938658654690e-03 -2.307597547769546509e-01 7.729675620794296265e-02 -5.445800349116325378e-02 5.286261811852455139e-02 5.202118679881095886e-02
5.650055035948753357e-02 4.045794252306222916e-03 3.018789179623126984e-02 8.832532912492752075e-02 -1.263915747404098511e-01 -7.445549219846725464e-02 -1.969465613365173340e-01 1.396234482526779175e-01 8.400698751211166382e-02 5.674450471997261047e-02 8.572600036859512329e-02 -1.035324949771165848e-02 -1.699687540531158447e-02 -6.255850940942764282e-02
-1.572688817977905273e-01 -3.795718029141426086e-02 7.626289874315261841e-02 -4.609899967908859253e-02 2.304760366678237915e-02 -4.052841290831565857e-02 -6.764611601829528809e-02 4.142943024635314941e-02 1.118085011839866638e-01 -1.917084455490112305e-01 -2.265400141477584839e-01 -1.103334948420524597e-01 1.672101765871047974e-02 9.541752934455871582e-02
-9.639255702495574951e-02 -4.610348120331764221e-02 1.920950114727020264e-01 1.893259882926940918e-01 -2.008284907788038254e-03 1.084059923887252808e-01 2.932103723287582397e-02 1.237185820937156677e-01 -1.082062907516956329e-02 3.599529266357421875e-01 -1.600586995482444763e-02 -8.162539452314376831e-02 2.622039616107940674e-02 3.167885122820734978e-03
-1.184667497873306274e-01 6.640531122684478760e-02 -5.458257347345352173e-02 -6.043552607297897339e-02 1.763162165880203247e-01 1.633419692516326904e-01 8.124731481075286865e-03 1.668288111686706543e-01 2.626903355121612549e-02 -5.973588675260543823e-02 -4.246451891958713531e-03 -7.726410869508981705e-03 -2.836601994931697845e-02 -4.516923427581787109e-02
1.553254574537277222e-01 1.316313296556472778e-01 -3.634339570999145508e-02 6.373385339975357056e-02 1.632580161094665527e-02 -1.240819916129112244e-01 -7.440328132361173630e-03 -1.097610965371131897e-01 -1.079096198081970215e-01 -1.605999320745468140e-01 -1.975043863058090210e-01 4.535107687115669250e-02 -2.647678852081298828e-01 1.517883837223052979e-01
8.154194056987762451e-02 -3.204081952571868896e-02 -3.063166327774524689e-02 -1.495466381311416626e-01 9.457051753997802734e-02 3.213986381888389587e-02 9.636277332901954651e-03 6.982222944498062134e-02 -3.374865949153900146e-01 -7.853294909000396729e-02 1.049922406673431396e-01 -9.321761131286621094e-02 -1.499035488814115524e-02 1.101033762097358704e-01
-8.762358874082565308e-02 1.354535520076751709e-01 2.946686372160911560e-02 -1.567588448524475098e-01 -5.443904921412467957e-02 -5.745058413594961166e-03 -1.389560103416442871e-01 -1.937990486621856689e-01 -4.774302244186401367e-02 1.223674882203340530e-02 1.087532844394445419e-02 7.676127552986145020e-02 1.180216297507286072e-01 8.113974332809448242e-02
1.129021421074867249e-01 7.295228540897369385e-02 5.387793760746717453e-03 -1.557952538132667542e-02 -1.399158090353012085e-01 9.598369151353836060e-02 6.540609151124954224e-02 3.512507081031799316e-01 9.079559147357940674e-02 -4.787676781415939331e-02 1.238085180521011353e-01 -4.256155341863632202e-02 1.187789626419544220e-02 -7.512103766202926636e-04
-2.757054728559077587e-41 8.397140917620033816e-41 4.025650228312334481e-41 -3.923635700109487799e-42 -3.619413803504570012e-41 -2.534388402577864154e-41 4.840925674856513053e-41 9.882937679343637356e-41 -3.937368425059871006e-41 -2.526260871484780215e-41 -2.150993142738594204e-42 -1.035139175596742370e-41 -5.987187818674213417e-41 3.442990326846075543e-41
3.254995867609977722e-02 2.196071594953536987e-01 -5.213632062077522278e-02 -1.461249291896820068e-01 9.971189498901367188e-02 6.688851118087768555e-02 -8.450791239738464355e-02 -7.440709322690963745e-02 -7.457980513572692871e-02 2.520086467266082764e-01 -1.450596600770950317e-01 4.601944610476493835e-02 -2.446706593036651611e-02 -6.672675162553787231e-02
-9.153044968843460083e-02 -5.424079298973083496e-02 -1.469585746526718140e-01 1.249955445528030396e-01 -6.146876141428947449e-02 7.615156006067991257e-03 -6.611660867929458618e-02 6.226062774658203125e-03 8.616416156291961670e-02 -1.426705271005630493e-01 -1.188423335552215576e-01 3.059482760727405548e-02 1.913418322801589966e-01 7.807621359825134277e-02
-1.165289282798767090e-01 -9.676574170589447021e-02 -8.168426901102066040e-02 2.515291050076484680e-02 -3.731800988316535950e-02 9.250678122043609619e-03 -1.175722852349281311e-01 4.150908207520842552e-04 5.618318542838096619e-02 -2.167762070894241333e-01 -2.957424893975257874e-02 1.489270180463790894e-01 3.020563162863254547e-02 -2.197512425482273102e-02
-5.301811173558235168e-02 1.006411090493202209e-01 1.992576569318771362e-02 7.190632168203592300e-03 -9.578276425600051880e-03 -1.321051269769668579e-02 1.211484987288713455e-02 -8.798266053199768066e-01 -3.436160972341895103e-03 3.593756991904228926e-04 -3.787091746926307678e-02 -1.559901330620050430e-02 4.897599294781684875e-02 3.747944161295890808e-02
1.323691010475158691e-01 -1.048710718750953674e-01 -7.702832669019699097e-02 5.425622686743736267e-02 -1.212244778871536255e-01 -6.165633723139762878e-02 -1.228290889412164688e-02 9.382174164056777954e-02 3.910569474101066589e-02 -1.094049289822578430e-01 2.104737311601638794e-01 -1.216790825128555298e-01 -1.443014666438102722e-02 5.852819234132766724e-02
-9.847179055213928223e-02 -1.125593036413192749e-01 8.159794658422470093e-02 7.226396352052688599e-02 -3.269057720899581909e-02 -2.479533897712826729e-03 2.462877519428730011e-02 8.005719631910324097e-02 6.321706622838973999e-02 -2.905282750725746155e-02 5.742900446057319641e-02 1.323474496603012085e-01 -1.937730908393859863e-01 -6.461959332227706909e-02
-8.646431914423418773e-41 5.744062535113857655e-41 -3.053849743303073843e-41 2.610058519651404276e-41 -7.115933731687853568e-41 -2.103068735258685460e-41 1.783712815239059650e-41 5.661806315257990893e-41 -2.924369765199460745e-41 3.344899434343338348e-42 2.319289088304004734e-41 1.521670002410318857e-41 2.409672839252955435e-41 -2.531585805649214520e-41
4.143131896853446960e-03 1.542898416519165039e-01 -5.526128038763999939e-02 1.466026455163955688e-01 -4.051999375224113464e-02 2.659262903034687042e-02 -6.941309571266174316e-02 -2.185159921646118164e-01 9.089951403439044952e-03 -2.360878735780715942e-01 2.099977880716323853e-01 -6.991727743297815323e-03 6.717000901699066162e-02 2.055293647572398186e-03
-1.617582589387893677e-01 2.369497716426849365e-02 -1.669005118310451508e-02 -1.000519935041666031e-02 8.584599941968917847e-02 8.627606183290481567e-02 8.216152340173721313e-02 -3.874892368912696838e-02 1.103511750698089600e-01 -7.417109329253435135e-03 1.216771304607391357e-01 8.139234781265258789e-02 -2.398249506950378418e-02 -2.768766507506370544e-02
6.671971082687377930e-02 4.979744181036949158e-02 4.140462726354598999e-03 -1.783493161201477051e-02 -1.796502321958541870e-01 -1.856587082147598267e-02 -1.691596210002899170e-01 2.530111744999885559e-02 -5.298757180571556091e-02 6.742563843727111816e-02 -1.819760948419570923e-01 -2.013577520847320557e-01 1.378944069147109985e-01 2.884771674871444702e-02
-6.403130944818258286e-03 -1.883305162191390991e-01 1.560059785842895508e-01 -1.175164356827735901e-01 -8.763323724269866943e-02 -3.925778344273567200e-02 -2.114119529724121094e-01 -1.928776055574417114e-01 -6.400149432010948658e-04 4.858865402638912201e-03 2.476032525300979614e-01 -1.285845041275024414e-01 1.229656711220741272e-01 1.316652633249759674e-02
-3.147906099911779165e-04 -3.636564314365386963e-02 -4.672040790319442749e-02 3.809396922588348389e-02 4.673806577920913696e-02 1.178967184387147427e-03 1.363741308450698853e-01 -3.757607191801071167e-03 3.734659869223833084e-03 -4.170368984341621399e-02 1.118534654378890991e-01 4.986348748207092285e-02 -2.719655819237232208e-02 -1.652507856488227844e-02
-3.150589298456907272e-03 -2.246967256069183350e-01 -2.709761857986450195e-01 -2.317194268107414246e-02 -2.383094653487205505e-02 -1.394125521183013916e-01 8.102719485759735107e-02 -1.026603057980537415e-01 9.691897034645080566e-02 9.399916231632232666e-02 2.540008537471294403e-02 1.350239757448434830e-02 -9.499465674161911011e-02 6.013697013258934021e-02
