-2.410291433334350586e-01 2.712604356929659843e-03 6.374078989028930664e-02 -4.232812672853469849e-03 -1.621889919042587280e-01 -5.966728861095071088e-42 -3.866787627339363098e-02 -2.100588977336883545e-01 9.628329873085021973e-01 -1.194211021065711975e-01 1.974636455997824669e-03 -1.649110168218612671e-01 -1.086286569544598193e-40 -3.625182434916496277e-02
1.164040565490722656e-01 5.317984148859977722e-02 1.082363575696945190e-01 1.919585168361663818e-01 -7.336382865905761719e-01 -3.644917435555281683e-41 -1.748188883066177368e-01 -3.126247525215148926e-01 8.245323598384857178e-02 -3.644349575042724609e-01 3.886132687330245972e-02 4.962010681629180908e-01 -8.046816301538829548e-41 6.974667906761169434e-01
-6.817857623100280762e-01 1.709485650062561035e-01 4.193694293498992920e-01 3.925264179706573486e-01 2.094307988882064819e-01 3.151800505959378556e-41 2.526169717311859131e-01 -7.246164232492446899e-02 1.846132054924964905e-02 2.119966596364974976e-01 1.420988142490386963e-01 3.106666505336761475e-01 4.276622783272909219e-41 -3.050492331385612488e-02
-2.611709572374820709e-02 -1.727963387966156006e-01 3.046892583370208740e-01 -2.187698334455490112e-01 -6.815436482429504395e-02 1.182135384504415681e-41 8.421248197555541992e-01 2.275297194719314575e-01 -2.955859526991844177e-02 2.469811886548995972e-01 -6.739868223667144775e-02 -3.003431856632232666e-01 6.595631611884048989e-41 2.015566080808639526e-01
